<?xml version="1.0"?>
<opencv_storage>
<!-- Created using Computer Vision System Toolbox(tm) for MATLAB(R) -->
<!-- Version 9.4.0.813654 (R2018a) -->
<!-- Compatible with OpenCV 3.1 -->
<cascade>
  <stageType>BOOST</stageType>
  <featureType>HAAR</featureType>
  <height>32</height>
  <width>114</width>
  <stageParams>
    <boostType>GAB</boostType>
    <minHitRate>9.9500000476837158e-01</minHitRate>
    <maxFalseAlarm>5.0000000000000000e-01</maxFalseAlarm>
    <weightTrimRate>9.4999999999999996e-01</weightTrimRate>
    <maxDepth>1</maxDepth>
    <maxWeakCount>100</maxWeakCount></stageParams>
  <featureParams>
    <maxCatCount>0</maxCatCount>
    <featSize>1</featSize>
    <mode>BASIC</mode></featureParams>
  <stageNum>20</stageNum>
  <stages>
    <!-- stage 0 -->
    <_>
      <maxWeakCount>1</maxWeakCount>
      <stageThreshold>1.</stageThreshold>
      <weakClassifiers>
        <_>
          <internalNodes>
            0 -1 21 1.2536309659481049e-03</internalNodes>
          <leafValues>
            1. -1.</leafValues></_></weakClassifiers></_>
    <!-- stage 1 -->
    <_>
      <maxWeakCount>1</maxWeakCount>
      <stageThreshold>8.4615385532379150e-01</stageThreshold>
      <weakClassifiers>
        <_>
          <internalNodes>
            0 -1 37 1.1161687871208414e-04</internalNodes>
          <leafValues>
            8.4615385532379150e-01 -1.</leafValues></_></weakClassifiers></_>
    <!-- stage 2 -->
    <_>
      <maxWeakCount>1</maxWeakCount>
      <stageThreshold>1.</stageThreshold>
      <weakClassifiers>
        <_>
          <internalNodes>
            0 -1 36 -2.1955622651148587e-04</internalNodes>
          <leafValues>
            -1. 1.</leafValues></_></weakClassifiers></_>
    <!-- stage 3 -->
    <_>
      <maxWeakCount>1</maxWeakCount>
      <stageThreshold>8.4615385532379150e-01</stageThreshold>
      <weakClassifiers>
        <_>
          <internalNodes>
            0 -1 34 4.6268102596513927e-04</internalNodes>
          <leafValues>
            8.4615385532379150e-01 -1.</leafValues></_></weakClassifiers></_>
    <!-- stage 4 -->
    <_>
      <maxWeakCount>1</maxWeakCount>
      <stageThreshold>8.4615385532379150e-01</stageThreshold>
      <weakClassifiers>
        <_>
          <internalNodes>
            0 -1 28 -1.3095021713525057e-03</internalNodes>
          <leafValues>
            -1. 8.4615385532379150e-01</leafValues></_></weakClassifiers></_>
    <!-- stage 5 -->
    <_>
      <maxWeakCount>2</maxWeakCount>
      <stageThreshold>-2.2847031056880951e-01</stageThreshold>
      <weakClassifiers>
        <_>
          <internalNodes>
            0 -1 13 -9.9546685814857483e-02</internalNodes>
          <leafValues>
            1. -9.2000001668930054e-01</leafValues></_>
        <_>
          <internalNodes>
            0 -1 32 -3.2316565921064466e-05</internalNodes>
          <leafValues>
            -1. 6.9152969121932983e-01</leafValues></_></weakClassifiers></_>
    <!-- stage 6 -->
    <_>
      <maxWeakCount>2</maxWeakCount>
      <stageThreshold>-1.3679255545139313e-01</stageThreshold>
      <weakClassifiers>
        <_>
          <internalNodes>
            0 -1 16 -6.1750464141368866e-02</internalNodes>
          <leafValues>
            1. -9.2000001668930054e-01</leafValues></_>
        <_>
          <internalNodes>
            0 -1 35 2.5500834453850985e-05</internalNodes>
          <leafValues>
            7.8320741653442383e-01 -1.</leafValues></_></weakClassifiers></_>
    <!-- stage 7 -->
    <_>
      <maxWeakCount>2</maxWeakCount>
      <stageThreshold>-1.3679255545139313e-01</stageThreshold>
      <weakClassifiers>
        <_>
          <internalNodes>
            0 -1 23 -5.5502466857433319e-03</internalNodes>
          <leafValues>
            1. -9.2000001668930054e-01</leafValues></_>
        <_>
          <internalNodes>
            0 -1 31 2.5585035473341122e-05</internalNodes>
          <leafValues>
            7.8320741653442383e-01 -1.</leafValues></_></weakClassifiers></_>
    <!-- stage 8 -->
    <_>
      <maxWeakCount>1</maxWeakCount>
      <stageThreshold>8.4615385532379150e-01</stageThreshold>
      <weakClassifiers>
        <_>
          <internalNodes>
            0 -1 33 -1.8880439456552267e-03</internalNodes>
          <leafValues>
            -1. 8.4615385532379150e-01</leafValues></_></weakClassifiers></_>
    <!-- stage 9 -->
    <_>
      <maxWeakCount>2</maxWeakCount>
      <stageThreshold>-2.2847031056880951e-01</stageThreshold>
      <weakClassifiers>
        <_>
          <internalNodes>
            0 -1 10 -4.2224250733852386e-02</internalNodes>
          <leafValues>
            1. -9.2000001668930054e-01</leafValues></_>
        <_>
          <internalNodes>
            0 -1 26 1.0978719219565392e-02</internalNodes>
          <leafValues>
            6.9152969121932983e-01 -1.</leafValues></_></weakClassifiers></_>
    <!-- stage 10 -->
    <_>
      <maxWeakCount>2</maxWeakCount>
      <stageThreshold>-2.2847031056880951e-01</stageThreshold>
      <weakClassifiers>
        <_>
          <internalNodes>
            0 -1 29 -4.6089137904345989e-03</internalNodes>
          <leafValues>
            1. -9.2000001668930054e-01</leafValues></_>
        <_>
          <internalNodes>
            0 -1 38 -2.9151517082937062e-05</internalNodes>
          <leafValues>
            -1. 6.9152969121932983e-01</leafValues></_></weakClassifiers></_>
    <!-- stage 11 -->
    <_>
      <maxWeakCount>5</maxWeakCount>
      <stageThreshold>-1.2432752847671509e+00</stageThreshold>
      <weakClassifiers>
        <_>
          <internalNodes>
            0 -1 12 -5.2453498356044292e-03</internalNodes>
          <leafValues>
            1. -9.2000001668930054e-01</leafValues></_>
        <_>
          <internalNodes>
            0 -1 12 -5.2453498356044292e-03</internalNodes>
          <leafValues>
            1. -5.8433943986892700e-01</leafValues></_>
        <_>
          <internalNodes>
            0 -1 11 1.4820049982517958e-03</internalNodes>
          <leafValues>
            3.4937322139739990e-01 -1.</leafValues></_>
        <_>
          <internalNodes>
            0 -1 12 -5.2453498356044292e-03</internalNodes>
          <leafValues>
            1. -2.2292006015777588e-01</leafValues></_>
        <_>
          <internalNodes>
            0 -1 14 -9.1052250354550779e-05</internalNodes>
          <leafValues>
            -1. 1.3461092114448547e-01</leafValues></_></weakClassifiers></_>
    <!-- stage 12 -->
    <_>
      <maxWeakCount>3</maxWeakCount>
      <stageThreshold>-1.0545109510421753e+00</stageThreshold>
      <weakClassifiers>
        <_>
          <internalNodes>
            0 -1 9 3.1294631771743298e-03</internalNodes>
          <leafValues>
            -9.2000001668930054e-01 1.</leafValues></_>
        <_>
          <internalNodes>
            0 -1 9 3.1294631771743298e-03</internalNodes>
          <leafValues>
            -5.8433943986892700e-01 1.</leafValues></_>
        <_>
          <internalNodes>
            0 -1 30 -9.7503885626792908e-04</internalNodes>
          <leafValues>
            -9.1660463809967041e-01 4.4982847571372986e-01</leafValues></_></weakClassifiers></_>
    <!-- stage 13 -->
    <_>
      <maxWeakCount>8</maxWeakCount>
      <stageThreshold>-1.4161444902420044e+00</stageThreshold>
      <weakClassifiers>
        <_>
          <internalNodes>
            0 -1 18 -3.6448150873184204e-02</internalNodes>
          <leafValues>
            1. -9.2000001668930054e-01</leafValues></_>
        <_>
          <internalNodes>
            0 -1 18 -3.6448150873184204e-02</internalNodes>
          <leafValues>
            1. -5.8433943986892700e-01</leafValues></_>
        <_>
          <internalNodes>
            0 -1 27 5.0391789525747299e-02</internalNodes>
          <leafValues>
            2.2659541666507721e-01 -1.</leafValues></_>
        <_>
          <internalNodes>
            0 -1 7 7.6511933002620935e-06</internalNodes>
          <leafValues>
            -1.3797694444656372e-01 1.</leafValues></_>
        <_>
          <internalNodes>
            0 -1 17 -6.2828636728227139e-03</internalNodes>
          <leafValues>
            -1. 2.0341476425528526e-02</leafValues></_>
        <_>
          <internalNodes>
            0 -1 7 7.6511933002620935e-06</internalNodes>
          <leafValues>
            9.0848607942461967e-03 1.</leafValues></_>
        <_>
          <internalNodes>
            0 -1 15 5.5989779531955719e-02</internalNodes>
          <leafValues>
            4.0636956691741943e-02 -1.</leafValues></_>
        <_>
          <internalNodes>
            0 -1 8 -2.9323009584913962e-05</internalNodes>
          <leafValues>
            1. -7.0486851036548615e-02</leafValues></_></weakClassifiers></_>
    <!-- stage 14 -->
    <_>
      <maxWeakCount>7</maxWeakCount>
      <stageThreshold>-1.4270218610763550e+00</stageThreshold>
      <weakClassifiers>
        <_>
          <internalNodes>
            0 -1 7 7.6511933002620935e-06</internalNodes>
          <leafValues>
            -9.2000001668930054e-01 1.</leafValues></_>
        <_>
          <internalNodes>
            0 -1 7 7.6511933002620935e-06</internalNodes>
          <leafValues>
            -5.8433943986892700e-01 1.</leafValues></_>
        <_>
          <internalNodes>
            0 -1 39 2.5295224040746689e-02</internalNodes>
          <leafValues>
            1.9931438565254211e-01 -1.</leafValues></_>
        <_>
          <internalNodes>
            0 -1 7 7.6511933002620935e-06</internalNodes>
          <leafValues>
            -1.3925017416477203e-01 1.</leafValues></_>
        <_>
          <internalNodes>
            0 -1 40 1.0678009130060673e-03</internalNodes>
          <leafValues>
            2.7661481872200966e-02 -1.</leafValues></_>
        <_>
          <internalNodes>
            0 -1 3 -2.9952012482681312e-05</internalNodes>
          <leafValues>
            1. 7.0583710112259723e-06</leafValues></_>
        <_>
          <internalNodes>
            0 -1 3 -2.9952012482681312e-05</internalNodes>
          <leafValues>
            1. -1.0415171273052692e-02</leafValues></_></weakClassifiers></_>
    <!-- stage 15 -->
    <_>
      <maxWeakCount>5</maxWeakCount>
      <stageThreshold>-1.5677471160888672e+00</stageThreshold>
      <weakClassifiers>
        <_>
          <internalNodes>
            0 -1 7 7.6511933002620935e-06</internalNodes>
          <leafValues>
            -9.2000001668930054e-01 1.</leafValues></_>
        <_>
          <internalNodes>
            0 -1 7 7.6511933002620935e-06</internalNodes>
          <leafValues>
            -5.8433943986892700e-01 1.</leafValues></_>
        <_>
          <internalNodes>
            0 -1 7 7.6511933002620935e-06</internalNodes>
          <leafValues>
            -8.4485612809658051e-02 1.</leafValues></_>
        <_>
          <internalNodes>
            0 -1 20 4.4418079778552055e-04</internalNodes>
          <leafValues>
            2.1074807271361351e-02 -1.</leafValues></_>
        <_>
          <internalNodes>
            0 -1 1 9.7743368314695545e-06</internalNodes>
          <leafValues>
            3.1209390272124438e-06 1.</leafValues></_></weakClassifiers></_>
    <!-- stage 16 -->
    <_>
      <maxWeakCount>7</maxWeakCount>
      <stageThreshold>-1.5222612619400024e+00</stageThreshold>
      <weakClassifiers>
        <_>
          <internalNodes>
            0 -1 7 7.6511933002620935e-06</internalNodes>
          <leafValues>
            -9.2000001668930054e-01 1.</leafValues></_>
        <_>
          <internalNodes>
            0 -1 7 7.6511933002620935e-06</internalNodes>
          <leafValues>
            -5.8433943986892700e-01 1.</leafValues></_>
        <_>
          <internalNodes>
            0 -1 7 7.6511933002620935e-06</internalNodes>
          <leafValues>
            -8.4485612809658051e-02 1.</leafValues></_>
        <_>
          <internalNodes>
            0 -1 22 4.9531081458553672e-04</internalNodes>
          <leafValues>
            6.6465683281421661e-02 -1.</leafValues></_>
        <_>
          <internalNodes>
            0 -1 24 -2.4765540729276836e-04</internalNodes>
          <leafValues>
            -1. 1.4648126438260078e-02</leafValues></_>
        <_>
          <internalNodes>
            0 -1 6 3.9936016946739983e-06</internalNodes>
          <leafValues>
            -1.4548964798450470e-02 1.</leafValues></_>
        <_>
          <internalNodes>
            0 -1 0 2.6449922643223545e-06</internalNodes>
          <leafValues>
            -1.0266684284943040e-06 1.</leafValues></_></weakClassifiers></_>
    <!-- stage 17 -->
    <_>
      <maxWeakCount>7</maxWeakCount>
      <stageThreshold>-1.5222612619400024e+00</stageThreshold>
      <weakClassifiers>
        <_>
          <internalNodes>
            0 -1 7 7.6511933002620935e-06</internalNodes>
          <leafValues>
            -9.2000001668930054e-01 1.</leafValues></_>
        <_>
          <internalNodes>
            0 -1 7 7.6511933002620935e-06</internalNodes>
          <leafValues>
            -5.8433943986892700e-01 1.</leafValues></_>
        <_>
          <internalNodes>
            0 -1 7 7.6511933002620935e-06</internalNodes>
          <leafValues>
            -8.4485612809658051e-02 1.</leafValues></_>
        <_>
          <internalNodes>
            0 -1 25 -4.7940267249941826e-03</internalNodes>
          <leafValues>
            -1. 6.6465683281421661e-02</leafValues></_>
        <_>
          <internalNodes>
            0 -1 2 5.3867352107772604e-06</internalNodes>
          <leafValues>
            -2.3899244144558907e-02 1.</leafValues></_>
        <_>
          <internalNodes>
            0 -1 25 -4.7940267249941826e-03</internalNodes>
          <leafValues>
            -1. 2.3992775008082390e-02</leafValues></_>
        <_>
          <internalNodes>
            0 -1 2 5.3867352107772604e-06</internalNodes>
          <leafValues>
            4.6054301492404193e-06 1.</leafValues></_></weakClassifiers></_>
    <!-- stage 18 -->
    <_>
      <maxWeakCount>6</maxWeakCount>
      <stageThreshold>-1.5677471160888672e+00</stageThreshold>
      <weakClassifiers>
        <_>
          <internalNodes>
            0 -1 7 7.6511933002620935e-06</internalNodes>
          <leafValues>
            -9.2000001668930054e-01 1.</leafValues></_>
        <_>
          <internalNodes>
            0 -1 7 7.6511933002620935e-06</internalNodes>
          <leafValues>
            -5.8433943986892700e-01 1.</leafValues></_>
        <_>
          <internalNodes>
            0 -1 7 7.6511933002620935e-06</internalNodes>
          <leafValues>
            -8.4485612809658051e-02 1.</leafValues></_>
        <_>
          <internalNodes>
            0 -1 4 -7.7209142036736012e-03</internalNodes>
          <leafValues>
            -1. 2.1074807271361351e-02</leafValues></_>
        <_>
          <internalNodes>
            0 -1 4 -7.7209142036736012e-03</internalNodes>
          <leafValues>
            -1. 3.1209390272124438e-06</leafValues></_>
        <_>
          <internalNodes>
            0 -1 7 7.6511933002620935e-06</internalNodes>
          <leafValues>
            -1.8367028017548766e-16 1.</leafValues></_></weakClassifiers></_>
    <!-- stage 19 -->
    <_>
      <maxWeakCount>7</maxWeakCount>
      <stageThreshold>-1.5677471160888672e+00</stageThreshold>
      <weakClassifiers>
        <_>
          <internalNodes>
            0 -1 7 7.6511933002620935e-06</internalNodes>
          <leafValues>
            -9.2000001668930054e-01 1.</leafValues></_>
        <_>
          <internalNodes>
            0 -1 7 7.6511933002620935e-06</internalNodes>
          <leafValues>
            -5.8433943986892700e-01 1.</leafValues></_>
        <_>
          <internalNodes>
            0 -1 7 7.6511933002620935e-06</internalNodes>
          <leafValues>
            -8.4485612809658051e-02 1.</leafValues></_>
        <_>
          <internalNodes>
            0 -1 19 -2.9917838983237743e-03</internalNodes>
          <leafValues>
            -1. 2.1074807271361351e-02</leafValues></_>
        <_>
          <internalNodes>
            0 -1 5 5.3867352107772604e-06</internalNodes>
          <leafValues>
            3.1209390272124438e-06 1.</leafValues></_>
        <_>
          <internalNodes>
            0 -1 19 -2.9917838983237743e-03</internalNodes>
          <leafValues>
            -1. 3.6828132278779924e-17</leafValues></_>
        <_>
          <internalNodes>
            0 -1 5 5.3867352107772604e-06</internalNodes>
          <leafValues>
            -4.4174327269330303e-16 1.</leafValues></_></weakClassifiers></_></stages>
  <features>
    <_>
      <rects>
        <_>
          0 0 2 1 -1.</_>
        <_>
          1 0 1 1 2.</_></rects>
      <tilted>0</tilted></_>
    <_>
      <rects>
        <_>
          0 0 1 4 -1.</_>
        <_>
          0 2 1 2 2.</_></rects>
      <tilted>0</tilted></_>
    <_>
      <rects>
        <_>
          0 0 2 4 -1.</_>
        <_>
          0 0 1 2 2.</_>
        <_>
          1 2 1 2 2.</_></rects>
      <tilted>0</tilted></_>
    <_>
      <rects>
        <_>
          0 0 4 13 -1.</_>
        <_>
          2 0 2 13 2.</_></rects>
      <tilted>0</tilted></_>
    <_>
      <rects>
        <_>
          0 0 4 28 -1.</_>
        <_>
          0 0 2 14 2.</_>
        <_>
          2 14 2 14 2.</_></rects>
      <tilted>0</tilted></_>
    <_>
      <rects>
        <_>
          0 0 3 24 -1.</_>
        <_>
          0 8 3 8 3.</_></rects>
      <tilted>0</tilted></_>
    <_>
      <rects>
        <_>
          0 0 9 9 -1.</_>
        <_>
          3 0 3 9 3.</_></rects>
      <tilted>0</tilted></_>
    <_>
      <rects>
        <_>
          0 0 9 10 -1.</_>
        <_>
          3 0 3 10 3.</_></rects>
      <tilted>0</tilted></_>
    <_>
      <rects>
        <_>
          0 0 8 12 -1.</_>
        <_>
          0 0 4 6 2.</_>
        <_>
          4 6 4 6 2.</_></rects>
      <tilted>0</tilted></_>
    <_>
      <rects>
        <_>
          0 0 18 9 -1.</_>
        <_>
          6 0 6 9 3.</_></rects>
      <tilted>0</tilted></_>
    <_>
      <rects>
        <_>
          0 0 22 16 -1.</_>
        <_>
          11 0 11 16 2.</_></rects>
      <tilted>0</tilted></_>
    <_>
      <rects>
        <_>
          0 0 24 10 -1.</_>
        <_>
          0 0 12 5 2.</_>
        <_>
          12 5 12 5 2.</_></rects>
      <tilted>0</tilted></_>
    <_>
      <rects>
        <_>
          0 0 26 6 -1.</_>
        <_>
          0 0 13 3 2.</_>
        <_>
          13 3 13 3 2.</_></rects>
      <tilted>0</tilted></_>
    <_>
      <rects>
        <_>
          0 0 42 22 -1.</_>
        <_>
          14 0 14 22 3.</_></rects>
      <tilted>0</tilted></_>
    <_>
      <rects>
        <_>
          0 0 32 1 -1.</_>
        <_>
          16 0 16 1 2.</_></rects>
      <tilted>0</tilted></_>
    <_>
      <rects>
        <_>
          0 0 32 32 -1.</_>
        <_>
          0 0 16 16 2.</_>
        <_>
          16 16 16 16 2.</_></rects>
      <tilted>0</tilted></_>
    <_>
      <rects>
        <_>
          0 0 54 12 -1.</_>
        <_>
          18 0 18 12 3.</_></rects>
      <tilted>0</tilted></_>
    <_>
      <rects>
        <_>
          0 0 63 28 -1.</_>
        <_>
          21 0 21 28 3.</_></rects>
      <tilted>0</tilted></_>
    <_>
      <rects>
        <_>
          0 0 30 18 -1.</_>
        <_>
          0 6 30 6 3.</_></rects>
      <tilted>0</tilted></_>
    <_>
      <rects>
        <_>
          0 0 93 32 -1.</_>
        <_>
          31 0 31 32 3.</_></rects>
      <tilted>0</tilted></_>
    <_>
      <rects>
        <_>
          0 0 102 19 -1.</_>
        <_>
          34 0 34 19 3.</_></rects>
      <tilted>0</tilted></_>
    <_>
      <rects>
        <_>
          0 0 108 5 -1.</_>
        <_>
          36 0 36 5 3.</_></rects>
      <tilted>0</tilted></_>
    <_>
      <rects>
        <_>
          0 0 114 17 -1.</_>
        <_>
          38 0 38 17 3.</_></rects>
      <tilted>0</tilted></_>
    <_>
      <rects>
        <_>
          0 0 49 4 -1.</_>
        <_>
          0 2 49 2 2.</_></rects>
      <tilted>0</tilted></_>
    <_>
      <rects>
        <_>
          0 0 104 24 -1.</_>
        <_>
          52 0 52 24 2.</_></rects>
      <tilted>0</tilted></_>
    <_>
      <rects>
        <_>
          0 0 110 30 -1.</_>
        <_>
          0 0 55 15 2.</_>
        <_>
          55 15 55 15 2.</_></rects>
      <tilted>0</tilted></_>
    <_>
      <rects>
        <_>
          0 0 112 20 -1.</_>
        <_>
          56 0 56 20 2.</_></rects>
      <tilted>0</tilted></_>
    <_>
      <rects>
        <_>
          0 4 52 28 -1.</_>
        <_>
          0 4 26 14 2.</_>
        <_>
          26 18 26 14 2.</_></rects>
      <tilted>0</tilted></_>
    <_>
      <rects>
        <_>
          0 18 78 3 -1.</_>
        <_>
          39 18 39 3 2.</_></rects>
      <tilted>0</tilted></_>
    <_>
      <rects>
        <_>
          0 26 39 6 -1.</_>
        <_>
          0 28 39 2 3.</_></rects>
      <tilted>0</tilted></_>
    <_>
      <rects>
        <_>
          3 3 109 27 -1.</_>
        <_>
          3 12 109 9 3.</_></rects>
      <tilted>0</tilted></_>
    <_>
      <rects>
        <_>
          3 24 60 1 -1.</_>
        <_>
          33 24 30 1 2.</_></rects>
      <tilted>0</tilted></_>
    <_>
      <rects>
        <_>
          8 7 2 15 -1.</_>
        <_>
          8 12 2 5 3.</_></rects>
      <tilted>0</tilted></_>
    <_>
      <rects>
        <_>
          11 3 30 22 -1.</_>
        <_>
          11 3 15 11 2.</_>
        <_>
          26 14 15 11 2.</_></rects>
      <tilted>0</tilted></_>
    <_>
      <rects>
        <_>
          11 22 50 10 -1.</_>
        <_>
          11 22 25 5 2.</_>
        <_>
          36 27 25 5 2.</_></rects>
      <tilted>0</tilted></_>
    <_>
      <rects>
        <_>
          12 0 13 18 -1.</_>
        <_>
          12 6 13 6 3.</_></rects>
      <tilted>0</tilted></_>
    <_>
      <rects>
        <_>
          42 2 28 5 -1.</_>
        <_>
          56 2 14 5 2.</_></rects>
      <tilted>0</tilted></_>
    <_>
      <rects>
        <_>
          48 0 66 4 -1.</_>
        <_>
          70 0 22 4 3.</_></rects>
      <tilted>0</tilted></_>
    <_>
      <rects>
        <_>
          76 21 24 10 -1.</_>
        <_>
          76 21 12 5 2.</_>
        <_>
          88 26 12 5 2.</_></rects>
      <tilted>0</tilted></_>
    <_>
      <rects>
        <_>
          80 8 34 20 -1.</_>
        <_>
          80 8 17 10 2.</_>
        <_>
          97 18 17 10 2.</_></rects>
      <tilted>0</tilted></_>
    <_>
      <rects>
        <_>
          98 9 16 18 -1.</_>
        <_>
          98 9 8 9 2.</_>
        <_>
          106 18 8 9 2.</_></rects>
      <tilted>0</tilted></_></features></cascade>
</opencv_storage>
